svm_type c_svc
kernel_type linear
nr_class 2
total_sv 102
rho -3.456402377911013
label 0 1
probA -2.06930309057576
probB -0.14392383430147035
nr_sv 51 51
SV
1.0 0:1.378108069 1:0.1252060394 
1.0 0:1.648870114 1:0.1852447771 
1.0 0:1.448798048 1:0.168346518 
1.0 0:1.330258947 1:0.1267362056 
1.0 0:1.186472779 1:0.1186516856 
1.0 0:1.600705105 1:0.0914801579 
1.0 0:1.166434752 1:0.1186938409 
1.0 0:1.278032508 1:0.1287204592 
1.0 0:2.505231609 1:0.6164935056 
1.0 0:1.55858959 1:0.1599636045 
1.0 0:1.627832779 1:0.2245474325 
1.0 0:2.09378691 1:0.4553174427 
1.0 0:1.296590097 1:0.1645197248 
1.0 0:2.067252816 1:0.1609308998 
1.0 0:1.378771053 1:0.154761433 
1.0 0:1.385343205 1:0.0456404222 
1.0 0:1.276128558 1:0.1035530936 
1.0 0:1.738314847 1:0.2772076045 
1.0 0:1.313439459 1:0.0759718021 
1.0 0:1.394539486 1:0.0912386978 
1.0 0:1.90768914 1:0.2651235656 
1.0 0:1.4790470512 1:0.0750459903 
1.0 0:1.280035418 1:0.0682462309 
1.0 0:1.451994914 1:0.1482325614 
1.0 0:1.247347572 1:0.0660034039 
1.0 0:1.342023888 1:0.1302940761 
1.0 0:1.574221222 1:0.2183316542 
1.0 0:1.504250323 1:0.162705785 
1.0 0:1.254355557 1:0.1379368676 
0.962724087980898 0:1.156519452 1:0.1213704019 
1.0 0:1.28717191 1:0.0800316811 
1.0 0:1.822096684 1:0.1664071091 
1.0 0:1.364006529 1:0.0646745491 
1.0 0:1.304826018 1:0.0471913573 
1.0 0:1.269498173 1:0.0445667521 
1.0 0:1.393353073 1:0.0904757036 
1.0 0:1.461349991 1:0.121492111 
1.0 0:1.518276986 1:0.1280652815 
1.0 0:1.401203323 1:0.0836258193 
1.0 0:1.514675307 1:0.1342551557 
1.0 0:1.64288836 1:0.2246530812 
1.0 0:1.257627991 1:0.0859151678 
1.0 0:1.842346972 1:0.1834234548 
1.0 0:1.20623631 1:0.1345950792 
1.0 0:1.602946636 1:0.2448465434 
1.0 0:2.019358642 1:0.3455218893 
1.0 0:1.915739138 1:0.2966058143 
1.0 0:1.913637636 1:0.1556873188 
1.0 0:1.150749236 1:0.1268630278 
1.0 0:1.769889704 1:0.2241226438 
1.0 0:2.267404678 1:0.4922126902 
-1.0 0:1.539181384 1:0.1553536404 
-1.0 0:0.422712277 1:0.0113858954 
-1.0 0:1.903244045 1:0.3277571897 
-1.0 0:1.461047107 1:0.1456111221 
-1.0 0:1.7595582218 1:0.1458604534 
-1.0 0:1.653164723 1:0.24386544 
-1.0 0:1.331332115 1:0.1039566331 
-1.0 0:1.770992584 1:0.2235073 
-1.0 0:1.250150289 1:0.1340466776 
-1.0 0:1.656473573 1:0.2506693947 
-1.0 0:1.57647008 1:0.20845475 
-1.0 0:1.747793166 1:0.2495430912 
-1.0 0:1.656473573 1:0.2506693947 
-1.0 0:1.57647008 1:0.20845475 
-1.0 0:1.747793166 1:0.2495430912 
-1.0 0:1.86937954 1:0.1754886993 
-1.0 0:1.889618729 1:0.2188805323 
-0.962724087980898 0:1.855478284 1:0.3902446757 
-1.0 0:1.331512785 1:0.091255436 
-1.0 0:1.657085714 1:0.2661533633 
-1.0 0:1.80173418 1:0.2083103903 
-1.0 0:1.546179351 1:0.2534952117 
-1.0 0:1.870924479 1:0.3305009476 
-1.0 0:1.426790481 1:0.1785974247 
-1.0 0:1.924259288 1:0.2969816404 
-1.0 0:1.825959324 1:0.3161538461 
-1.0 0:0.702955949 1:0.0341069543 
-1.0 0:1.847193879 1:0.2882999515 
-1.0 0:1.704456322 1:0.3267349185 
-1.0 0:1.766025518 1:0.3285374029 
-1.0 0:1.365563496 1:0.1310409769 
-1.0 0:1.50189651 1:0.1389277272 
-1.0 0:1.10411876 1:0.071119358 
-1.0 0:1.411812907 1:0.1818334822 
-1.0 0:1.308383266 1:0.207021346 
-1.0 0:1.228800062 1:0.1640506034 
-1.0 0:0.956339921 1:0.0755692192 
-1.0 0:1.382795116 1:0.1760352679 
-1.0 0:1.494556526 1:0.205523489 
-1.0 0:1.227363595 1:0.1613033052 
-1.0 0:1.911530596 1:0.2995137168 
-1.0 0:1.786170276 1:0.1758158686 
-1.0 0:1.504612205 1:0.2651625318 
-1.0 0:1.621832174 1:0.2783286496 
-1.0 0:1.653148451 1:0.1556716542 
-1.0 0:1.877054202 1:0.2950348563 
-1.0 0:1.521850404 1:0.3802615552 
-1.0 0:1.79574712 1:0.3202791817 
-1.0 0:1.722292888 1:0.3811187342 
-1.0 0:1.552113079 1:0.2554598193 
-1.0 0:1.669237389 1:0.1764853551 
